<?xml version="1.0"?>
<opencv_storage>
<cascade>
  <stageType>BOOST</stageType>
  <featureType>HAAR</featureType>
  <height>140</height>
  <width>140</width>
  <stageParams>
    <boostType>GAB</boostType>
    <minHitRate>9.9500000476837158e-01</minHitRate>
    <maxFalseAlarm>5.0000000000000000e-01</maxFalseAlarm>
    <weightTrimRate>9.4999999999999996e-01</weightTrimRate>
    <maxDepth>1</maxDepth>
    <maxWeakCount>100</maxWeakCount></stageParams>
  <featureParams>
    <maxCatCount>0</maxCatCount>
    <featSize>1</featSize>
    <mode>BASIC</mode></featureParams>
  <stageNum>3</stageNum>
  <stages>
    <!-- stage 0 -->
    <_>
      <maxWeakCount>2</maxWeakCount>
      <stageThreshold>3.9579536765813828e-02</stageThreshold>
      <weakClassifiers>
        <_>
          <internalNodes>
            0 -1 2 1.5650916611775756e-04</internalNodes>
          <leafValues>
            9.3292683362960815e-01 -7.5000000000000000e-01</leafValues></_>
        <_>
          <internalNodes>
            0 -1 4 6.9873340180492960e-06</internalNodes>
          <leafValues>
            7.8957951068878174e-01 -9.6565783023834229e-01</leafValues></_></weakClassifiers></_>
    <!-- stage 1 -->
    <_>
      <maxWeakCount>2</maxWeakCount>
      <stageThreshold>1.4507605135440826e-01</stageThreshold>
      <weakClassifiers>
        <_>
          <internalNodes>
            0 -1 1 -1.9475635886192322e-01</internalNodes>
          <leafValues>
            -7.9310345649719238e-01 9.6284830570220947e-01</leafValues></_>
        <_>
          <internalNodes>
            0 -1 3 -2.6257499121129513e-04</internalNodes>
          <leafValues>
            -1. 9.3817949295043945e-01</leafValues></_></weakClassifiers></_>
    <!-- stage 2 -->
    <_>
      <maxWeakCount>1</maxWeakCount>
      <stageThreshold>1.</stageThreshold>
      <weakClassifiers>
        <_>
          <internalNodes>
            0 -1 0 -3.4946203231811523e-01</internalNodes>
          <leafValues>
            -1. 1.</leafValues></_></weakClassifiers></_></stages>
  <features>
    <_>
      <rects>
        <_>
          2 10 138 93 -1.</_>
        <_>
          48 10 46 93 3.</_></rects>
      <tilted>0</tilted></_>
    <_>
      <rects>
        <_>
          4 30 135 57 -1.</_>
        <_>
          49 30 45 57 3.</_></rects>
      <tilted>0</tilted></_>
    <_>
      <rects>
        <_>
          38 42 3 87 -1.</_>
        <_>
          39 42 1 87 3.</_></rects>
      <tilted>0</tilted></_>
    <_>
      <rects>
        <_>
          39 65 2 46 -1.</_>
        <_>
          40 65 1 46 2.</_></rects>
      <tilted>0</tilted></_>
    <_>
      <rects>
        <_>
          55 58 2 2 -1.</_>
        <_>
          55 58 1 1 2.</_>
        <_>
          56 59 1 1 2.</_></rects>
      <tilted>0</tilted></_></features></cascade>
</opencv_storage>
